#ifndef CONSTANTS_HPP
#define CONSTANTS_HPP

#include <cmath>


#ifndef M_PI
#define M_PI 3.14159265358979323846264338327950288
#endif

namespace fractions {

  const double one_half = 1. / 2.;
  const double two_fifths = 2. / 5.;
  const double one_third = 1. / 3.;
  const double two_sevenths = 2. / 7.;
  const double one_quarter = 1. / 4.;
  const double one_sixth = 1. / 6.;
  const double three_halves = 3. / 2.;
  const double five_halves = 5. / 2.;
  const double seven_halves = 7. / 2.;

  const double pi = M_PI;
  const double pi_d_12 = M_PI / 12.;
  const double pi_d_6 = M_PI / 6.;
  const double pi_d_4 = M_PI / 4.;
  const double pi_d_3 = M_PI / 3.;
  const double fivepi_d_12 = M_PI * 5. / 12.;
  const double pi_d_2 = M_PI / 2.;
  const double sevenpi_d_12 = M_PI * 7. / 12.;
  const double twopi_d_3 = M_PI * 2. / 3.;
  const double threepi_d_2 = M_PI * 3. / 2.;
  const double threepi_d_4 = M_PI * 3. / 4.;
  const double fivepi_d_6 = M_PI * 5. / 6.;
  const double elevenpi_d_12 = M_PI * 11. / 12.;
  const double twopi = M_PI * 2.;
  const double fourpi = M_PI * 4.;

}

namespace limb_darkening {

  const int quadratic = 0;
  const int non_linear = 1;

}

namespace intersections {

  const int T_plus = 1;
  const int T_minus = 0;

  const int dT_dtheta_plus = 1;
  const int dT_dtheta_minus = 0;

  const int planet = 0;
  const int star = 1;
  const int beyond = 2;

}

namespace tolerance {

  const double unit_circle_lo = 1. - 1.e-7;
  const double unit_circle_hi = 1. + 1.e-7;
  const double intersect_associate = 1.e-7;

}

namespace legendre {

  const double roots_ten[10] = {
    -0.9739065285171717, -0.8650633666889844, -0.6794095682990244,
    -0.4333953941292472, -0.14887433898163116, 0.14887433898163116,
    0.4333953941292472, 0.6794095682990244, 0.8650633666889844,
    0.9739065285171717};
  const double weights_ten[10] = {
    0.06667134430868715, 0.14945134915058056, 0.21908636251598224,
    0.26926671930999674, 0.2955242247147533, 0.2955242247147533,
    0.26926671930999674, 0.21908636251598224, 0.14945134915058056,
    0.06667134430868715};

  const double roots_twenty[20] = {
    -0.9931285991850949, -0.9639719272779137, -0.912234428251326,
    -0.8391169718222189, -0.7463319064601508, -0.6360536807265149,
    -0.510867001950827, -0.37370608871541955, -0.22778585114164504,
    -0.0765265211334973, 0.0765265211334973, 0.22778585114164504,
    0.37370608871541955, 0.510867001950827, 0.6360536807265149,
    0.7463319064601508, 0.8391169718222189, 0.912234428251326,
    0.9639719272779137, 0.9931285991850949
  };
  const double weights_twenty[20] = {
    0.017614007139152694, 0.04060142980038749, 0.06267204833410933,
    0.08327674157670428, 0.10193011981724028, 0.11819453196151843,
    0.1316886384491765, 0.1420961093183818, 0.1491729864726036,
    0.15275338713072562, 0.15275338713072562, 0.1491729864726036,
    0.1420961093183818, 0.1316886384491765, 0.11819453196151843,
    0.10193011981724028, 0.08327674157670428, 0.06267204833410933,
    0.04060142980038749, 0.017614007139152694
  };

  const double roots_hundred[100] = {
    -0.9997137267734412, -0.998491950639596, -0.9962951347331253,
    -0.9931249370374433, -0.9889843952429918, -0.9838775407060572,
    -0.9778093584869183, -0.9707857757637064, -0.9628136542558157,
    -0.9539007829254917, -0.944055870136256, -0.9332885350430795,
    -0.921609298145334, -0.9090295709825296, -0.8955616449707271,
    -0.8812186793850183, -0.8660146884971647, -0.8499645278795913,
    -0.8330838798884008, -0.8153892383391761, -0.7968978923903145,
    -0.7776279096494955, -0.7575981185197072, -0.7368280898020207,
    -0.7153381175730564, -0.693149199355802, -0.670283015603141,
    -0.6467619085141292, -0.6226088602037078, -0.5978474702471787,
    -0.5725019326213812, -0.5465970120650943, -0.520158019881763,
    -0.49321078920819095, -0.46578164977335806, -0.4378974021720315,
    -0.4095852916783015, -0.38087298162463, -0.35178852637242164,
    -0.32236034390052914, -0.2926171880384719, -0.2625881203715035,
    -0.232302481844974, -0.2017898640957359, -0.1710800805386032,
    -0.14020313723611394, -0.10918920358006112, -0.07806858281343665,
    -0.0468716824215916, -0.015628984421543014, 0.015628984421543014,
    0.0468716824215916, 0.07806858281343665, 0.10918920358006112,
    0.14020313723611394, 0.1710800805386032, 0.2017898640957359,
    0.232302481844974, 0.2625881203715035, 0.2926171880384719,
    0.32236034390052914, 0.35178852637242164, 0.38087298162463,
    0.4095852916783015, 0.4378974021720315, 0.46578164977335806,
    0.49321078920819095, 0.520158019881763, 0.5465970120650943,
    0.5725019326213812, 0.5978474702471787, 0.6226088602037078,
    0.6467619085141292, 0.670283015603141, 0.693149199355802,
    0.7153381175730564, 0.7368280898020207, 0.7575981185197072,
    0.7776279096494955, 0.7968978923903145, 0.8153892383391761,
    0.8330838798884008, 0.8499645278795913, 0.8660146884971647,
    0.8812186793850183, 0.8955616449707271, 0.9090295709825296,
    0.921609298145334, 0.9332885350430795, 0.944055870136256,
    0.9539007829254917, 0.9628136542558157, 0.9707857757637064,
    0.9778093584869183, 0.9838775407060572, 0.9889843952429918,
    0.9931249370374433, 0.9962951347331253, 0.998491950639596,
    0.9997137267734412
  };
  const double weights_hundred[100] = {
    0.0007346344905126898, 0.0017093926535142352, 0.0026839253715512,
    0.0036559612013284124, 0.004624450063421878, 0.005588428003864034,
    0.006546948450844967, 0.007499073255464671, 0.008443871469668015,
    0.009380419653694464, 0.01030780257486857, 0.011225114023186262,
    0.012131457662979584, 0.013025947892972086, 0.013907710703718412,
    0.0147758845274416, 0.015629621077545168, 0.016468086176144543,
    0.01729046056832356, 0.018095940722128518, 0.018883739613374813,
    0.019653087494435076, 0.02040323264620951, 0.021133442112527507,
    0.021843002416247877, 0.02253122025633607, 0.023197423185254258,
    0.023840960265968304, 0.024461202707956962, 0.025057544481579732,
    0.025629402910208425, 0.026176219239545547, 0.026697459183571085,
    0.02719261344657683, 0.0276611982207925, 0.02810275565910117,
    0.0285168543223951, 0.028903089601125146, 0.029261084110638342,
    0.0295904880599127, 0.029890979593332815, 0.030162265105169176,
    0.03040407952645477, 0.03061618658398052, 0.030798379031152595,
    0.030950478850490976, 0.031072337427566512, 0.03116383569620994,
    0.031224884254849365, 0.031255423453863354, 0.031255423453863354,
    0.031224884254849365, 0.03116383569620994, 0.031072337427566512,
    0.030950478850490976, 0.030798379031152595, 0.03061618658398052,
    0.03040407952645477, 0.030162265105169176, 0.029890979593332815,
    0.0295904880599127, 0.029261084110638342, 0.028903089601125146,
    0.0285168543223951, 0.02810275565910117, 0.0276611982207925,
    0.02719261344657683, 0.026697459183571085, 0.026176219239545547,
    0.025629402910208425, 0.025057544481579732, 0.024461202707956962,
    0.023840960265968304, 0.023197423185254258, 0.02253122025633607,
    0.021843002416247877, 0.021133442112527507, 0.02040323264620951,
    0.019653087494435076, 0.018883739613374813, 0.018095940722128518,
    0.01729046056832356, 0.016468086176144543, 0.015629621077545168,
    0.0147758845274416, 0.013907710703718412, 0.013025947892972086,
    0.012131457662979584, 0.011225114023186262, 0.01030780257486857,
    0.009380419653694464, 0.008443871469668015, 0.007499073255464671,
    0.006546948450844967, 0.005588428003864034, 0.004624450063421878,
    0.0036559612013284124, 0.0026839253715512, 0.0017093926535142352,
    0.0007346344905126898
  };

}

#endif
