#ifndef CONSTANTS_HPP
#define CONSTANTS_HPP

#include <cmath>


#ifndef M_PI
#define M_PI 3.14159265358979323846264338327950288
#endif

namespace fractions {

  const double one_half = 1. / 2.;
  const double two_fifths = 2. / 5.;
  const double one_third = 1. / 3.;
  const double two_sevenths = 2. / 7.;
  const double one_quarter = 1. / 4.;
  const double one_sixth = 1. / 6.;
  const double three_halves = 3. / 2.;
  const double five_halves = 5. / 2.;
  const double seven_halves = 7. / 2.;

  const double pi = M_PI;
  const double pi_d_12 = M_PI / 12.;
  const double pi_d_6 = M_PI / 6.;
  const double pi_d_4 = M_PI / 4.;
  const double pi_d_3 = M_PI / 3.;
  const double fivepi_d_12 = M_PI * 5. / 12.;
  const double pi_d_2 = M_PI / 2.;
  const double sevenpi_d_12 = M_PI * 7. / 12.;
  const double twopi_d_3 = M_PI * 2. / 3.;
  const double threepi_d_2 = M_PI * 3. / 2.;
  const double threepi_d_4 = M_PI * 3. / 4.;
  const double fivepi_d_6 = M_PI * 5. / 6.;
  const double elevenpi_d_12 = M_PI * 11. / 12.;
  const double sevenpi_d_3 = M_PI * 7. / 3.;
  const double twopi = M_PI * 2.;
  const double threepi = M_PI * 3.;
  const double fourpi = M_PI * 4.;
  const double fivepi = M_PI * 4.;
  const double sixpi = M_PI * 6.;

}

namespace limb_darkening {

  const int quadratic = 0;
  const int non_linear = 1;

}

namespace intersections {

  const int T_plus = 1;
  const int T_minus = 0;

  const int dT_dtheta_plus = 1;
  const int dT_dtheta_minus = 0;

  const int planet = 0;
  const int entire_planet = 1;
  const int star = 2;
  const int entire_star = 3;
  const int beyond = 4;

}

namespace tolerance {

  const double unit_circle_lo = 1. - 1.e-7;
  const double unit_circle_hi = 1. + 1.e-7;
  const double intersect_associate = 1.e-7;

}

namespace legendre {

  const double roots_ten[10] = {
    -0.9739065285171717, -0.8650633666889844, -0.6794095682990244,
    -0.4333953941292472, -0.14887433898163116, 0.14887433898163116,
    0.4333953941292472, 0.6794095682990244, 0.8650633666889844,
    0.9739065285171717};
  const double weights_ten[10] = {
    0.06667134430868715, 0.14945134915058056, 0.21908636251598224,
    0.26926671930999674, 0.2955242247147533, 0.2955242247147533,
    0.26926671930999674, 0.21908636251598224, 0.14945134915058056,
    0.06667134430868715};

  const double roots_twenty[20] = {
    -0.9931285991850949, -0.9639719272779137, -0.912234428251326,
    -0.8391169718222189, -0.7463319064601508, -0.6360536807265149,
    -0.510867001950827, -0.37370608871541955, -0.22778585114164504,
    -0.0765265211334973, 0.0765265211334973, 0.22778585114164504,
    0.37370608871541955, 0.510867001950827, 0.6360536807265149,
    0.7463319064601508, 0.8391169718222189, 0.912234428251326,
    0.9639719272779137, 0.9931285991850949
  };
  const double weights_twenty[20] = {
    0.017614007139152694, 0.04060142980038749, 0.06267204833410933,
    0.08327674157670428, 0.10193011981724028, 0.11819453196151843,
    0.1316886384491765, 0.1420961093183818, 0.1491729864726036,
    0.15275338713072562, 0.15275338713072562, 0.1491729864726036,
    0.1420961093183818, 0.1316886384491765, 0.11819453196151843,
    0.10193011981724028, 0.08327674157670428, 0.06267204833410933,
    0.04060142980038749, 0.017614007139152694
  };

  const double roots_fifty[50] = {
    -0.998866404420071, -0.9940319694320907, -0.9853540840480057,
    -0.972864385106692, -0.9566109552428079, -0.936656618944878,
    -0.9130785566557917, -0.8859679795236131, -0.8554297694299462,
    -0.821582070859336, -0.7845558329003992, -0.7444943022260685,
    -0.7015524687068223, -0.6558964656854394, -0.6077029271849502,
    -0.5571583045146501, -0.5044581449074641, -0.44980633497403877,
    -0.39341431189756515, -0.3355002454194374, -0.27628819377953207,
    -0.21600723687604179, -0.15489058999814587, -0.09317470156008616,
    -0.031098338327188835, 0.031098338327188835, 0.09317470156008616,
    0.15489058999814587, 0.21600723687604179, 0.27628819377953207,
    0.3355002454194374, 0.39341431189756515, 0.44980633497403877,
    0.5044581449074641, 0.5571583045146501, 0.6077029271849502,
    0.6558964656854394, 0.7015524687068223, 0.7444943022260685,
    0.7845558329003992, 0.821582070859336, 0.8554297694299462,
    0.8859679795236131, 0.9130785566557917, 0.936656618944878,
    0.9566109552428079, 0.972864385106692, 0.9853540840480057,
    0.9940319694320907, 0.998866404420071
  };
  const double weights_fifty[50] = {
    0.002908622553150225, 0.006759799195744691, 0.010590548383652589,
    0.014380822761487319, 0.01811556071348955, 0.02178024317012366,
    0.02536067357001322, 0.028842993580535235, 0.03221372822357793,
    0.035459835615146054, 0.03856875661258746, 0.04152846309014782,
    0.044327504338803454, 0.04695505130394862, 0.049400938449466386,
    0.05165570306958117, 0.05371062188899652, 0.05555774480621284,
    0.05718992564772871, 0.05860084981322267, 0.05978505870426556,
    0.06073797084177046, 0.06145589959031681, 0.06193606742068351,
    0.062176616655347454, 0.062176616655347454, 0.06193606742068351,
    0.06145589959031681, 0.06073797084177046, 0.05978505870426556,
    0.05860084981322267, 0.05718992564772871, 0.05555774480621284,
    0.05371062188899652, 0.05165570306958117, 0.049400938449466386,
    0.04695505130394862, 0.044327504338803454, 0.04152846309014782,
    0.03856875661258746, 0.035459835615146054, 0.03221372822357793,
    0.028842993580535235, 0.02536067357001322, 0.02178024317012366,
    0.01811556071348955, 0.014380822761487319, 0.010590548383652589,
    0.006759799195744691, 0.002908622553150225
  };

  const double roots_hundred[100] = {
    -0.9997137267734412, -0.998491950639596, -0.9962951347331253,
    -0.9931249370374433, -0.9889843952429918, -0.9838775407060572,
    -0.9778093584869183, -0.9707857757637064, -0.9628136542558157,
    -0.9539007829254917, -0.944055870136256, -0.9332885350430795,
    -0.921609298145334, -0.9090295709825296, -0.8955616449707271,
    -0.8812186793850183, -0.8660146884971647, -0.8499645278795913,
    -0.8330838798884008, -0.8153892383391761, -0.7968978923903145,
    -0.7776279096494955, -0.7575981185197072, -0.7368280898020207,
    -0.7153381175730564, -0.693149199355802, -0.670283015603141,
    -0.6467619085141292, -0.6226088602037078, -0.5978474702471787,
    -0.5725019326213812, -0.5465970120650943, -0.520158019881763,
    -0.49321078920819095, -0.46578164977335806, -0.4378974021720315,
    -0.4095852916783015, -0.38087298162463, -0.35178852637242164,
    -0.32236034390052914, -0.2926171880384719, -0.2625881203715035,
    -0.232302481844974, -0.2017898640957359, -0.1710800805386032,
    -0.14020313723611394, -0.10918920358006112, -0.07806858281343665,
    -0.0468716824215916, -0.015628984421543014, 0.015628984421543014,
    0.0468716824215916, 0.07806858281343665, 0.10918920358006112,
    0.14020313723611394, 0.1710800805386032, 0.2017898640957359,
    0.232302481844974, 0.2625881203715035, 0.2926171880384719,
    0.32236034390052914, 0.35178852637242164, 0.38087298162463,
    0.4095852916783015, 0.4378974021720315, 0.46578164977335806,
    0.49321078920819095, 0.520158019881763, 0.5465970120650943,
    0.5725019326213812, 0.5978474702471787, 0.6226088602037078,
    0.6467619085141292, 0.670283015603141, 0.693149199355802,
    0.7153381175730564, 0.7368280898020207, 0.7575981185197072,
    0.7776279096494955, 0.7968978923903145, 0.8153892383391761,
    0.8330838798884008, 0.8499645278795913, 0.8660146884971647,
    0.8812186793850183, 0.8955616449707271, 0.9090295709825296,
    0.921609298145334, 0.9332885350430795, 0.944055870136256,
    0.9539007829254917, 0.9628136542558157, 0.9707857757637064,
    0.9778093584869183, 0.9838775407060572, 0.9889843952429918,
    0.9931249370374433, 0.9962951347331253, 0.998491950639596,
    0.9997137267734412
  };
  const double weights_hundred[100] = {
    0.0007346344905126898, 0.0017093926535142352, 0.0026839253715512,
    0.0036559612013284124, 0.004624450063421878, 0.005588428003864034,
    0.006546948450844967, 0.007499073255464671, 0.008443871469668015,
    0.009380419653694464, 0.01030780257486857, 0.011225114023186262,
    0.012131457662979584, 0.013025947892972086, 0.013907710703718412,
    0.0147758845274416, 0.015629621077545168, 0.016468086176144543,
    0.01729046056832356, 0.018095940722128518, 0.018883739613374813,
    0.019653087494435076, 0.02040323264620951, 0.021133442112527507,
    0.021843002416247877, 0.02253122025633607, 0.023197423185254258,
    0.023840960265968304, 0.024461202707956962, 0.025057544481579732,
    0.025629402910208425, 0.026176219239545547, 0.026697459183571085,
    0.02719261344657683, 0.0276611982207925, 0.02810275565910117,
    0.0285168543223951, 0.028903089601125146, 0.029261084110638342,
    0.0295904880599127, 0.029890979593332815, 0.030162265105169176,
    0.03040407952645477, 0.03061618658398052, 0.030798379031152595,
    0.030950478850490976, 0.031072337427566512, 0.03116383569620994,
    0.031224884254849365, 0.031255423453863354, 0.031255423453863354,
    0.031224884254849365, 0.03116383569620994, 0.031072337427566512,
    0.030950478850490976, 0.030798379031152595, 0.03061618658398052,
    0.03040407952645477, 0.030162265105169176, 0.029890979593332815,
    0.0295904880599127, 0.029261084110638342, 0.028903089601125146,
    0.0285168543223951, 0.02810275565910117, 0.0276611982207925,
    0.02719261344657683, 0.026697459183571085, 0.026176219239545547,
    0.025629402910208425, 0.025057544481579732, 0.024461202707956962,
    0.023840960265968304, 0.023197423185254258, 0.02253122025633607,
    0.021843002416247877, 0.021133442112527507, 0.02040323264620951,
    0.019653087494435076, 0.018883739613374813, 0.018095940722128518,
    0.01729046056832356, 0.016468086176144543, 0.015629621077545168,
    0.0147758845274416, 0.013907710703718412, 0.013025947892972086,
    0.012131457662979584, 0.011225114023186262, 0.01030780257486857,
    0.009380419653694464, 0.008443871469668015, 0.007499073255464671,
    0.006546948450844967, 0.005588428003864034, 0.004624450063421878,
    0.0036559612013284124, 0.0026839253715512, 0.0017093926535142352,
    0.0007346344905126898
  };

  const double roots_two_hundred[200] = {
    -0.99992807128507, -0.9996210312809364, -0.9990687218731522,
    -0.9982711559489108, -0.9972285142833798, -0.9959410492610112,
    -0.9944090757657015, -0.9926329694171897, -0.9906131660306736,
    -0.9883501613607613, -0.9858445109217865, -0.9830968298260957,
    -0.9801077926209241, -0.9768781331165663, -0.9734086442028307,
    -0.9697001776524374, -0.9657536439107448, -0.9615700118715107,
    -0.9571503086385662, -0.9524956192733551, -0.9476070865283424,
    -0.9424859105663231, -0.9371333486656785, -0.931550714911637,
    -0.9257393798736082, -0.9197007702686635, -0.913436368611241,
    -0.9069477128491588, -0.9002363959860233, -0.8933040656901265,
    -0.8861524238899228, -0.8787832263561882, -0.8711982822709634,
    -0.8633994537833832, -0.8553886555525035, -0.8471678542772394,
    -0.8387390682135252, -0.8301043666788193, -0.8212658695440718,
    -0.8122257467132832, -0.8029862175907783, -0.7935495505363276,
    -0.7839180623082516, -0.7740941174946421, -0.7640801279328391,
    -0.7538785521173134, -0.7434918945960871, -0.7329227053558545,
    -0.7221735791959438, -0.711247155091278, -0.7001461155444901,
    -0.6888731859273538, -0.6774311338116865, -0.665822768289895,
    -0.6540509392853255, -0.642118536852591, -0.6300284904680444,
    -0.6177837683105758, -0.605387376532905, -0.5928423585235543,
    -0.580151794159678, -0.5673187990509334, -0.5543465237745808,
    -0.5412381531019974, -0.5279969052167963, -0.5146260309247439,
    -0.5011288128556673, -0.48750856465754877, -0.4737686301830054,
    -0.45991238266835327, -0.44594322390545765, -0.4318645834065725,
    -0.4176799175623748, -0.40339270879340006, -0.3890064646950866,
    -0.3745247171766407, -0.35995102159393066, -0.34528895587662656,
    -0.33054211964979663, -0.3157141333501772, -0.30080863733733487,
    -0.2858292909999354, -0.2707797718573425, -0.25566377465676426,
    -0.24048501046617093, -0.22524720576320506, -0.2099541015203097,
    -0.1946094522862959, -0.17921702526457992, -0.1637805993883111,
    -0.14830396439262145, -0.13279091988422337, -0.11724527440858258,
    -0.10167084451489801, -0.08607145381911607, -0.07045093206520936,
    -0.054813114184952307, -0.03916183935642231, -0.0235009500614577,
    -0.007834291142306401, 0.007834291142306401, 0.0235009500614577,
    0.03916183935642231, 0.054813114184952307, 0.07045093206520936,
    0.08607145381911607, 0.10167084451489801, 0.11724527440858258,
    0.13279091988422337, 0.14830396439262145, 0.1637805993883111,
    0.17921702526457992, 0.1946094522862959, 0.2099541015203097,
    0.22524720576320506, 0.24048501046617093, 0.25566377465676426,
    0.2707797718573425, 0.2858292909999354, 0.30080863733733487,
    0.3157141333501772, 0.33054211964979663, 0.34528895587662656,
    0.35995102159393066, 0.3745247171766407, 0.3890064646950866,
    0.40339270879340006, 0.4176799175623748, 0.4318645834065725,
    0.44594322390545765, 0.45991238266835327, 0.4737686301830054,
    0.48750856465754877, 0.5011288128556673, 0.5146260309247439,
    0.5279969052167963, 0.5412381531019974, 0.5543465237745808,
    0.5673187990509334, 0.580151794159678, 0.5928423585235543,
    0.605387376532905, 0.6177837683105758, 0.6300284904680444,
    0.642118536852591, 0.6540509392853255, 0.665822768289895,
    0.6774311338116865, 0.6888731859273538, 0.7001461155444901,
    0.711247155091278, 0.7221735791959438, 0.7329227053558545,
    0.7434918945960871, 0.7538785521173134, 0.7640801279328391,
    0.7740941174946421, 0.7839180623082516, 0.7935495505363276,
    0.8029862175907783, 0.8122257467132832, 0.8212658695440718,
    0.8301043666788193, 0.8387390682135252, 0.8471678542772394,
    0.8553886555525035, 0.8633994537833832, 0.8711982822709634,
    0.8787832263561882, 0.8861524238899228, 0.8933040656901265,
    0.9002363959860233, 0.9069477128491588, 0.913436368611241,
    0.9197007702686635, 0.9257393798736082, 0.931550714911637,
    0.9371333486656785, 0.9424859105663231, 0.9476070865283424,
    0.9524956192733551, 0.9571503086385662, 0.9615700118715107,
    0.9657536439107448, 0.9697001776524374, 0.9734086442028307,
    0.9768781331165663, 0.9801077926209241, 0.9830968298260957,
    0.9858445109217865, 0.9883501613607613, 0.9906131660306736,
    0.9926329694171897, 0.9944090757657015, 0.9959410492610112,
    0.9972285142833798, 0.9982711559489108, 0.9990687218731522,
    0.9996210312809364, 0.99992807128507
  };
  const double weights_two_hundred[200] = {
    0.00018459009746338845, 0.0004296466304531294, 0.0006749606344770364,
    0.0009201404593395245, 0.0011651007147580094, 0.0014097768274525014,
    0.001654107552313927, 0.0018980325049399774, 0.0021414916394403767,
    0.0023844251120055536, 0.002626773244517283, 0.0028684765194698907,
    0.003109475586102275, 0.003349711271034665, 0.003589124590810883,
    0.0038276567653450122, 0.004065249231775795, 0.004301843658514186,
    0.004537381959358446, 0.004771806307640695, 0.005005059150338841,
    0.00523708322215616, 0.005467821559549254, 0.005697217514689161,
    0.005925214769350814, 0.006151757348732572, 0.006376789635183325,
    0.006600256381862037, 0.00682210272628575, 0.007042274203801323,
    0.007260716760958291, 0.007477376768766885, 0.007692201035873531,
    0.00790513682161026, 0.008116131848949453, 0.00832513431733166,
    0.008532092915386539, 0.008736956833526155, 0.008939675776422861,
    0.009140199975352021, 0.009338480200414265, 0.00953446777261995,
    0.009728114575840972, 0.009919373068619557, 0.010108196295847789,
    0.010294537900285287, 0.010478352133950347, 0.010659593869342414,
    0.01083821861052689, 0.011014182504056275, 0.011187442349738456,
    0.011357955611240323, 0.011525680426532086, 0.011690575618165111,
    0.011852600703379379, 0.012011715904044007, 0.012167882156422222,
    0.012321061120761288, 0.012471215190706802, 0.012618307502533023,
    0.012762301944194764, 0.012903163164192466, 0.013040856580251572,
    0.013175348387811574, 0.01330660556832767, 0.013434595897373886,
    0.013559287952556679, 0.013680651121228323, 0.013798655608002879,
    0.013913272442070997, 0.014024473484311859, 0.01413223143420274,
    0.014236519836520458, 0.014337313087836681, 0.014434586442803671,
    0.014528316020228946, 0.01461847880893909, 0.01470505267342867,
    0.014788016359294444, 0.014867349498454127, 0.014943032614145892,
    0.01501504712571116, 0.015083375353155078, 0.015148000521487934,
    0.015208906764843448, 0.015266079130373398, 0.015319503581919166,
    0.01536916700345743, 0.015415057202320169, 0.015457162912188533,
    0.015495473795857893, 0.015529980447776717, 0.015560674396354966,
    0.015587548106044085, 0.015610594979187096, 0.015629809357638563,
    0.015645186524153223, 0.015656722703544415, 0.015664415063610975,
    0.015668261715832354, 0.015668261715832354, 0.015664415063610975,
    0.015656722703544415, 0.015645186524153223, 0.015629809357638563,
    0.015610594979187096, 0.015587548106044085, 0.015560674396354966,
    0.015529980447776717, 0.015495473795857893, 0.015457162912188533,
    0.015415057202320169, 0.01536916700345743, 0.015319503581919166,
    0.015266079130373398, 0.015208906764843448, 0.015148000521487934,
    0.015083375353155078, 0.01501504712571116, 0.014943032614145892,
    0.014867349498454127, 0.014788016359294444, 0.01470505267342867,
    0.01461847880893909, 0.014528316020228946, 0.014434586442803671,
    0.014337313087836681, 0.014236519836520458, 0.01413223143420274,
    0.014024473484311859, 0.013913272442070997, 0.013798655608002879,
    0.013680651121228323, 0.013559287952556679, 0.013434595897373886,
    0.01330660556832767, 0.013175348387811574, 0.013040856580251572,
    0.012903163164192466, 0.012762301944194764, 0.012618307502533023,
    0.012471215190706802, 0.012321061120761288, 0.012167882156422222,
    0.012011715904044007, 0.011852600703379379, 0.011690575618165111,
    0.011525680426532086, 0.011357955611240323, 0.011187442349738456,
    0.011014182504056275, 0.01083821861052689, 0.010659593869342414,
    0.010478352133950347, 0.010294537900285287, 0.010108196295847789,
    0.009919373068619557, 0.009728114575840972, 0.00953446777261995,
    0.009338480200414265, 0.009140199975352021, 0.008939675776422861,
    0.008736956833526155, 0.008532092915386539, 0.00832513431733166,
    0.008116131848949453, 0.00790513682161026, 0.007692201035873531,
    0.007477376768766885, 0.007260716760958291, 0.007042274203801323,
    0.00682210272628575, 0.006600256381862037, 0.006376789635183325,
    0.006151757348732572, 0.005925214769350814, 0.005697217514689161,
    0.005467821559549254, 0.00523708322215616, 0.005005059150338841,
    0.004771806307640695, 0.004537381959358446, 0.004301843658514186,
    0.004065249231775795, 0.0038276567653450122, 0.003589124590810883,
    0.003349711271034665, 0.003109475586102275, 0.0028684765194698907,
    0.002626773244517283, 0.0023844251120055536, 0.0021414916394403767,
    0.0018980325049399774, 0.001654107552313927, 0.0014097768274525014,
    0.0011651007147580094, 0.0009201404593395245, 0.0006749606344770364,
    0.0004296466304531294, 0.00018459009746338845
  };

  const double roots_five_hundred[500] = {
    -0.9999884567522129, -0.9999391798145371, -0.9998505288592006,
    -0.9997224876879449, -0.9995550589335447, -0.9993482486165864,
    -0.9991020646933555, -0.9988165167849478, -0.9984916161049856,
    -0.9981273754352638, -0.9977238091159455, -0.997280933040936,
    -0.9967987646553127, -0.9962773229536412, -0.9957166284786823,
    -0.9951167033202715, -0.9944775711142633, -0.9937992570414846,
    -0.9930817878266696, -0.9923251917373579, -0.9915294985827499,
    -0.9906947397125085, -0.9898209480155092, -0.9889081579185339,
    -0.9879564053849051, -0.9869657279130641, -0.9859361645350886,
    -0.9848677558151522, -0.9837605438479229, -0.9826145722569035,
    -0.9814298861927109, -0.9802065323312958, -0.9789445588721034,
    -0.977644015536173, -0.9763049535641788, -0.9749274257144105,
    -0.9735114862606945, -0.9720571909902542, -0.9705645972015134,
    -0.9690337637018371, -0.9674647508052152, -0.9658576203298854,
    -0.9642124355958984, -0.9625292614226219, -0.9608081641261872,
    -0.9590492115168765, -0.9572524728964509, -0.9554180190554202,
    -0.9535459222702527, -0.951636256300529, -0.9496890963860346,
    -0.947704519243797, -0.9456826030650609, -0.9436234275122095,
    -0.9415270737156246, -0.9393936242704907, -0.9372231632335404,
    -0.9350157761197428, -0.9327715498989343, -0.930490572992392,
    -0.9281729352693497, -0.9258187280434573, -0.9234280440691834,
    -0.9210009775381599, -0.9185376240754719, -0.9160380807358894,
    -0.9135024460000439, -0.9109308197705482, -0.90832330336806,
    -0.9056799995272898, -0.9030010123929542, -0.9002864475156713,
    -0.8975364118478033, -0.8947510137392416, -0.8919303629331384,
    -0.8890745705615832, -0.8861837491412231, -0.8832580125688314,
    -0.8802974761168184, -0.877302256428691, -0.8742724715144563,
    -0.8712082407459724, -0.8681096848522449, -0.8649769259146709,
    -0.8618100873622285, -0.8586092939666133, -0.8553746718373239,
    -0.8521063484166915, -0.8488044524748606, -0.8454691141047139,
    -0.8421004647167475, -0.8386986370338935, -0.8352637650862904,
    -0.8317959842060023, -0.8282954310216877, -0.8247622434532156,
    -0.8211965607062317, -0.8175985232666736, -0.8139682728952365,
    -0.8103059526217875, -0.8066117067397292, -0.802885680800317,
    -0.7991280216069218, -0.7953388772092481, -0.7915183968974999,
    -0.7876667311964989, -0.7837840318597541, -0.7798704518634826,
    -0.7759261454005825, -0.7719512678745576, -0.7679459758933953,
    -0.7639104272633952, -0.7598447809829524, -0.7557491972362931,
    -0.7516238373871631, -0.7474688639724698, -0.7432844406958796,
    -0.7390707324213666, -0.7348279051667179, -0.7305561260969925,
    -0.7262555635179349, -0.7219263868693437, -0.7175687667183971,
    -0.7131828747529303, -0.7087688837746735, -0.704326967692442,
    -0.6998573015152847, -0.6953600613455898, -0.6908354243721446,
    -0.6862835688631563, -0.6817046741592265, -0.677098920666287,
    -0.6724664898484909, -0.6678075642210626, -0.6631223273431084,
    -0.6584109638103826, -0.6536736592480159, -0.648910600303201,
    -0.6441219746378393, -0.6393079709211461, -0.6344687788222193,
    -0.6296045890025641, -0.624715593108583, -0.6198019837640233,
    -0.6148639545623893, -0.6099017000593141, -0.6049154157648939,
    -0.5999052981359867, -0.5948715445684694, -0.5898143533894622,
    -0.5847339238495148, -0.5796304561147554, -0.5745041512590039,
    -0.5693552112558506, -0.5641838389706982, -0.5589902381527687,
    -0.5537746134270766, -0.5485371702863653, -0.5432781150830126,
    -0.5379976550208994, -0.532695998147246, -0.5273733533444159,
    -0.5220299303216851, -0.5166659396069802, -0.5112815925385833,
    -0.505877101256806, -0.5004526786956304, -0.4950085385743205,
    -0.4895448953890009, -0.4840619644042065, -0.4785599616444009,
    -0.4730391038854648, -0.4674996086461556, -0.46194169417953745,
    -0.4563655794643817, -0.4507714841965394, -0.44515962878028587,
    -0.4395302343196359, -0.4338835226096334, -0.4282197161276124,
    -0.4225390380244314, -0.41684171211568133, -0.4111279628728678,
    -0.40539801541456655, -0.3996520954975543, -0.3938904295079136,
    -0.3881132444521137, -0.3823207679480666, -0.37651322821615896,
    -0.37069085407026003, -0.3648538749087071, -0.35900252070526706,
    -0.3531370220000754, -0.3472576098905531, -0.34136451602230194,
    -0.3354579725799771, -0.32953821227813995, -0.3236054683520885,
    -0.3176599745486687, -0.3117019651170644, -0.3057316747995684,
    -0.2997493388223338, -0.29375519288610585, -0.28774947315693566,
    -0.28173241625687584, -0.2757042592546568, -0.2696652396563469,
    -0.2636155953959953, -0.2575555648262563, -0.25148538670899967,
    -0.24540530020590268, -0.23931554486902745, -0.2332163606313831,
    -0.22710798779747218, -0.2209906670338227, -0.21486463935950628,
    -0.2087301461366422, -0.20258742906088745, -0.19643673015191443,
    -0.19027829174387523, -0.18411235647585425, -0.17793916728230763,
    -0.1717589673834925, -0.16557200027588392, -0.15937850972258094,
    -0.15317873974370327, -0.14697293460677596, -0.14076133881710645,
    -0.13454419710815047, -0.12832175443187005, -0.12209425594908219,
    -0.11586194701980021, -0.10962507319356599, -0.10338388019977625,
    -0.09713861393800013, -0.09088952046829166, -0.08463684600149457,
    -0.07838083688954173, -0.07212173961574952, -0.06585980078510623,
    -0.05959526711455545, -0.05332838542327642, -0.047059402622959136,
    -0.04078856570807591, -0.03451612174615038, -0.028242317868022754,
    -0.0219674012581132, -0.01569161914468306, -0.009415218790093945,
    -0.003138447481065858, 0.003138447481065858, 0.009415218790093945,
    0.01569161914468306, 0.0219674012581132, 0.028242317868022754,
    0.03451612174615038, 0.04078856570807591, 0.047059402622959136,
    0.05332838542327642, 0.05959526711455545, 0.06585980078510623,
    0.07212173961574952, 0.07838083688954173, 0.08463684600149457,
    0.09088952046829166, 0.09713861393800013, 0.10338388019977625,
    0.10962507319356599, 0.11586194701980021, 0.12209425594908219,
    0.12832175443187005, 0.13454419710815047, 0.14076133881710645,
    0.14697293460677596, 0.15317873974370327, 0.15937850972258094,
    0.16557200027588392, 0.1717589673834925, 0.17793916728230763,
    0.18411235647585425, 0.19027829174387523, 0.19643673015191443,
    0.20258742906088745, 0.2087301461366422, 0.21486463935950628,
    0.2209906670338227, 0.22710798779747218, 0.2332163606313831,
    0.23931554486902745, 0.24540530020590268, 0.25148538670899967,
    0.2575555648262563, 0.2636155953959953, 0.2696652396563469,
    0.2757042592546568, 0.28173241625687584, 0.28774947315693566,
    0.29375519288610585, 0.2997493388223338, 0.3057316747995684,
    0.3117019651170644, 0.3176599745486687, 0.3236054683520885,
    0.32953821227813995, 0.3354579725799771, 0.34136451602230194,
    0.3472576098905531, 0.3531370220000754, 0.35900252070526706,
    0.3648538749087071, 0.37069085407026003, 0.37651322821615896,
    0.3823207679480666, 0.3881132444521137, 0.3938904295079136,
    0.3996520954975543, 0.40539801541456655, 0.4111279628728678,
    0.41684171211568133, 0.4225390380244314, 0.4282197161276124,
    0.4338835226096334, 0.4395302343196359, 0.44515962878028587,
    0.4507714841965394, 0.4563655794643817, 0.46194169417953745,
    0.4674996086461556, 0.4730391038854648, 0.4785599616444009,
    0.4840619644042065, 0.4895448953890009, 0.4950085385743205,
    0.5004526786956304, 0.505877101256806, 0.5112815925385833,
    0.5166659396069802, 0.5220299303216851, 0.5273733533444159,
    0.532695998147246, 0.5379976550208994, 0.5432781150830126,
    0.5485371702863653, 0.5537746134270766, 0.5589902381527687,
    0.5641838389706982, 0.5693552112558506, 0.5745041512590039,
    0.5796304561147554, 0.5847339238495148, 0.5898143533894622,
    0.5948715445684694, 0.5999052981359867, 0.6049154157648939,
    0.6099017000593141, 0.6148639545623893, 0.6198019837640233,
    0.624715593108583, 0.6296045890025641, 0.6344687788222193,
    0.6393079709211461, 0.6441219746378393, 0.648910600303201,
    0.6536736592480159, 0.6584109638103826, 0.6631223273431084,
    0.6678075642210626, 0.6724664898484909, 0.677098920666287,
    0.6817046741592265, 0.6862835688631563, 0.6908354243721446,
    0.6953600613455898, 0.6998573015152847, 0.704326967692442,
    0.7087688837746735, 0.7131828747529303, 0.7175687667183971,
    0.7219263868693437, 0.7262555635179349, 0.7305561260969925,
    0.7348279051667179, 0.7390707324213666, 0.7432844406958796,
    0.7474688639724698, 0.7516238373871631, 0.7557491972362931,
    0.7598447809829524, 0.7639104272633952, 0.7679459758933953,
    0.7719512678745576, 0.7759261454005825, 0.7798704518634826,
    0.7837840318597541, 0.7876667311964989, 0.7915183968974999,
    0.7953388772092481, 0.7991280216069218, 0.802885680800317,
    0.8066117067397292, 0.8103059526217875, 0.8139682728952365,
    0.8175985232666736, 0.8211965607062317, 0.8247622434532156,
    0.8282954310216877, 0.8317959842060023, 0.8352637650862904,
    0.8386986370338935, 0.8421004647167475, 0.8454691141047139,
    0.8488044524748606, 0.8521063484166915, 0.8553746718373239,
    0.8586092939666133, 0.8618100873622285, 0.8649769259146709,
    0.8681096848522449, 0.8712082407459724, 0.8742724715144563,
    0.877302256428691, 0.8802974761168184, 0.8832580125688314,
    0.8861837491412231, 0.8890745705615832, 0.8919303629331384,
    0.8947510137392416, 0.8975364118478033, 0.9002864475156713,
    0.9030010123929542, 0.9056799995272898, 0.90832330336806,
    0.9109308197705482, 0.9135024460000439, 0.9160380807358894,
    0.9185376240754719, 0.9210009775381599, 0.9234280440691834,
    0.9258187280434573, 0.9281729352693497, 0.930490572992392,
    0.9327715498989343, 0.9350157761197428, 0.9372231632335404,
    0.9393936242704907, 0.9415270737156246, 0.9436234275122095,
    0.9456826030650609, 0.947704519243797, 0.9496890963860346,
    0.951636256300529, 0.9535459222702527, 0.9554180190554202,
    0.9572524728964509, 0.9590492115168765, 0.9608081641261872,
    0.9625292614226219, 0.9642124355958984, 0.9658576203298854,
    0.9674647508052152, 0.9690337637018371, 0.9705645972015134,
    0.9720571909902542, 0.9735114862606945, 0.9749274257144105,
    0.9763049535641788, 0.977644015536173, 0.9789445588721034,
    0.9802065323312958, 0.9814298861927109, 0.9826145722569035,
    0.9837605438479229, 0.9848677558151522, 0.9859361645350886,
    0.9869657279130641, 0.9879564053849051, 0.9889081579185339,
    0.9898209480155092, 0.9906947397125085, 0.9915294985827499,
    0.9923251917373579, 0.9930817878266696, 0.9937992570414846,
    0.9944775711142633, 0.9951167033202715, 0.9957166284786823,
    0.9962773229536412, 0.9967987646553127, 0.997280933040936,
    0.9977238091159455, 0.9981273754352638, 0.9984916161049856,
    0.9988165167849478, 0.9991020646933555, 0.9993482486165864,
    0.9995550589335447, 0.9997224876879449, 0.9998505288592006,
    0.9999391798145371, 0.9999884567522129
  };
  const double weights_five_hundred[500] = {
    2.9623644465697656e-05, 6.895707283601415e-05, 0.00010834602869399702,
    0.00014773577476888183, 0.00018712071585655663, 0.00022649858871526404,
    0.0002658676532710835, 0.00030522629426595917, 0.00034457293521574135,
    0.00038390601412477366, 0.00042322397547990803, 0.00046252526700063984,
    0.0005018083384663445, 0.0005410716410672226, 0.0005803136271950596,
    0.0006195327503017293, 0.0006587274648934523, 0.0006978962265241319,
    0.0007370374918305398, 0.0007761497185738057, 0.0008152313656768744,
    0.0008542808933008306, 0.0008932967628777096, 0.000932277437164982,
    0.0009712213803281727, 0.001010127057980923, 0.0010489929372457182,
    0.0010878174868191907, 0.001126599177025965, 0.0011653364798807097,
    0.001204027869151193, 0.001242671820408414, 0.001281266811102958,
    0.0013198113206111587, 0.0013583038302944425, 0.001396742823569744,
    0.001435126785955203, 0.001473454205149681, 0.0015117235710654024,
    0.0015499333759135972, 0.001588082114248171, 0.0016261682830275976,
    0.001664190381677067, 0.0017021469121453483, 0.0017400363789647347,
    0.0017778572893172747, 0.0018156081530709507, 0.00185328748286495,
    0.0018908937941566264, 0.0019284256052757443, 0.0019658814374908847,
    0.002003259815058525, 0.002040559265295521, 0.002077778318623844,
    0.0021149155086291767, 0.0021519693721281066, 0.0021889384492205515,
    0.0022258212833440216, 0.0022626164213356563, 0.002299322413484984,
    0.0023359378135971677, 0.002372461179048113, 0.0024088910708336187,
    0.002445226053636617, 0.002481464695880074, 0.0025176055697809017,
    0.0025536472514093114, 0.0025895883207398673, 0.002625427361717348,
    0.0026611629623014255, 0.002696793714529933, 0.0027323182145722684,
    0.0027677350627777716, 0.0028030428637474455, 0.0028382402263704525,
    0.0028733257638908906, 0.002908298093958116, 0.002943155838680841,
    0.00297789762468333, 0.0030125220831589694, 0.003047027849922,
    0.0030814135654654694, 0.003115677875010041, 0.0031498194285612276,
    0.0031838368809589367, 0.003217728891938276, 0.0032514941261687484,
    0.0032851312533205192, 0.003318638948108816, 0.003352015890348826,
    0.0033852607650075766, 0.0034183722622552985, 0.003451349077517208,
    0.0034841899115247757, 0.003516893470369004, 0.003549458465543678,
    0.0035818836140086535, 0.00361416763823117, 0.0036463092662374786,
    0.003678307231665246, 0.0037101602738130414, 0.00374186713768705,
    0.0037734265740556683, 0.0038048373394935, 0.003836098196433935,
    0.003867207913216834, 0.00389816526413608, 0.003928969029489588,
    0.003959617995625055, 0.003990110954990608, 0.004020446706180398,
    0.004050624053982735, 0.0040806418094267395, 0.004110498789828532,
    0.004140193818840145, 0.004169725726494248, 0.00419909334924948,
    0.004228295530036975, 0.004257331118307645, 0.004286198970075457,
    0.004314897947962204, 0.00434342692124488, 0.004371784765896502,
    0.004399970364635027, 0.0044279826069619594, 0.004455820389211544,
    0.0044834826145896565, 0.0045109681932198565, 0.004538276042185944,
    0.004565405085573089, 0.004592354254512803, 0.004619122487221863,
    0.004645708729046645, 0.004672111932504598, 0.004698331057323409,
    0.004724365070484209, 0.004750212946260888, 0.004775873666262041,
    0.004801346219468438, 0.004826629602276519, 0.0048517228185345,
    0.004876624879583245, 0.00490133480429477, 0.004925851619113127,
    0.0049501743580882785, 0.004974302062917698, 0.004998233782983715,
    0.005021968575388772, 0.005045505504995727, 0.0050688436444625545,
    0.005091982074279076, 0.005114919882804294, 0.005137656166300867,
    0.005160190028971817, 0.005182520582995535, 0.00520464694856016,
    0.005226568253899082, 0.00524828363532511, 0.005269792237264172,
    0.005291093212289098, 0.0053121857211533355, 0.005333068932823488,
    0.005353742024512445, 0.00537420418171166, 0.005394454598223956,
    0.00541449247619376, 0.005434317026139573, 0.005453927466985127,
    0.005473323026090044, 0.005492502939279679, 0.00551146645087609,
    0.0055302128137273586, 0.005548741289237035, 0.00556705114739346,
    0.00558514166679847, 0.0056030121346955794, 0.0056206618469974365,
    0.005638090108316105, 0.005655296231987228, 0.005672279540098703,
    0.005689039363517974, 0.005705575041917145, 0.005721885923799418,
    0.0057379713665252656, 0.005753830736336971, 0.005769463408384032,
    0.005784868766747606, 0.005800046204465585, 0.005814995123554748,
    0.005829714935036212, 0.005844205058957541, 0.005858464924415361,
    0.005872493969579416, 0.005886291641712725, 0.005899857397194547,
    0.005913190701541949, 0.005926291029429783, 0.005939157864712209,
    0.005951790700443107, 0.005964189038895919, 0.005976352391582763,
    0.005988280279274213, 0.005999972232018033, 0.006011427789158029,
    0.006022646499351133, 0.00603362792058643, 0.006044371620202181,
    0.0060548771749022855, 0.006065144170773886, 0.006075172203302866,
    0.006084960877390205, 0.0060945098073677765, 0.006103818617012728,
    0.006112886939563159, 0.0061217144177322606, 0.006130300703722177,
    0.006138645459237888, 0.006146748355500694, 0.006154609073260931,
    0.006162227302810718, 0.006169602743995879, 0.006176735106228124,
    0.00618362410849635, 0.006190269479377677, 0.006196670957048107,
    0.006202828289292875, 0.006208741233516622, 0.006214409556752425,
    0.006219833035671689, 0.006225011456592149, 0.006229944615486933,
    0.006234632317992285, 0.006239074379415343, 0.006243270624741257,
    0.006247220888640358, 0.006250925015474361, 0.006254382859302723,
    0.006257594283888279, 0.006260559162702772, 0.006263277378931461,
    0.0062657488254781865, 0.006267973404969345, 0.006269951029757702,
    0.006271681621925943, 0.006273165113289613, 0.00627440144540007,
    0.006275390569546461, 0.006276132446757851, 0.006276627047804693,
    0.00627687435319997, 0.00627687435319997, 0.006276627047804693,
    0.006276132446757851, 0.006275390569546461, 0.00627440144540007,
    0.006273165113289613, 0.006271681621925943, 0.006269951029757702,
    0.006267973404969345, 0.0062657488254781865, 0.006263277378931461,
    0.006260559162702772, 0.006257594283888279, 0.006254382859302723,
    0.006250925015474361, 0.006247220888640358, 0.006243270624741257,
    0.006239074379415343, 0.006234632317992285, 0.006229944615486933,
    0.006225011456592149, 0.006219833035671689, 0.006214409556752425,
    0.006208741233516622, 0.006202828289292875, 0.006196670957048107,
    0.006190269479377677, 0.00618362410849635, 0.006176735106228124,
    0.006169602743995879, 0.006162227302810718, 0.006154609073260931,
    0.006146748355500694, 0.006138645459237888, 0.006130300703722177,
    0.0061217144177322606, 0.006112886939563159, 0.006103818617012728,
    0.0060945098073677765, 0.006084960877390205, 0.006075172203302866,
    0.006065144170773886, 0.0060548771749022855, 0.006044371620202181,
    0.00603362792058643, 0.006022646499351133, 0.006011427789158029,
    0.005999972232018033, 0.005988280279274213, 0.005976352391582763,
    0.005964189038895919, 0.005951790700443107, 0.005939157864712209,
    0.005926291029429783, 0.005913190701541949, 0.005899857397194547,
    0.005886291641712725, 0.005872493969579416, 0.005858464924415361,
    0.005844205058957541, 0.005829714935036212, 0.005814995123554748,
    0.005800046204465585, 0.005784868766747606, 0.005769463408384032,
    0.005753830736336971, 0.0057379713665252656, 0.005721885923799418,
    0.005705575041917145, 0.005689039363517974, 0.005672279540098703,
    0.005655296231987228, 0.005638090108316105, 0.0056206618469974365,
    0.0056030121346955794, 0.00558514166679847, 0.00556705114739346,
    0.005548741289237035, 0.0055302128137273586, 0.00551146645087609,
    0.005492502939279679, 0.005473323026090044, 0.005453927466985127,
    0.005434317026139573, 0.00541449247619376, 0.005394454598223956,
    0.00537420418171166, 0.005353742024512445, 0.005333068932823488,
    0.0053121857211533355, 0.005291093212289098, 0.005269792237264172,
    0.00524828363532511, 0.005226568253899082, 0.00520464694856016,
    0.005182520582995535, 0.005160190028971817, 0.005137656166300867,
    0.005114919882804294, 0.005091982074279076, 0.0050688436444625545,
    0.005045505504995727, 0.005021968575388772, 0.004998233782983715,
    0.004974302062917698, 0.0049501743580882785, 0.004925851619113127,
    0.00490133480429477, 0.004876624879583245, 0.0048517228185345,
    0.004826629602276519, 0.004801346219468438, 0.004775873666262041,
    0.004750212946260888, 0.004724365070484209, 0.004698331057323409,
    0.004672111932504598, 0.004645708729046645, 0.004619122487221863,
    0.004592354254512803, 0.004565405085573089, 0.004538276042185944,
    0.0045109681932198565, 0.0044834826145896565, 0.004455820389211544,
    0.0044279826069619594, 0.004399970364635027, 0.004371784765896502,
    0.00434342692124488, 0.004314897947962204, 0.004286198970075457,
    0.004257331118307645, 0.004228295530036975, 0.00419909334924948,
    0.004169725726494248, 0.004140193818840145, 0.004110498789828532,
    0.0040806418094267395, 0.004050624053982735, 0.004020446706180398,
    0.003990110954990608, 0.003959617995625055, 0.003928969029489588,
    0.00389816526413608, 0.003867207913216834, 0.003836098196433935,
    0.0038048373394935, 0.0037734265740556683, 0.00374186713768705,
    0.0037101602738130414, 0.003678307231665246, 0.0036463092662374786,
    0.00361416763823117, 0.0035818836140086535, 0.003549458465543678,
    0.003516893470369004, 0.0034841899115247757, 0.003451349077517208,
    0.0034183722622552985, 0.0033852607650075766, 0.003352015890348826,
    0.003318638948108816, 0.0032851312533205192, 0.0032514941261687484,
    0.003217728891938276, 0.0031838368809589367, 0.0031498194285612276,
    0.003115677875010041, 0.0030814135654654694, 0.003047027849922,
    0.0030125220831589694, 0.00297789762468333, 0.002943155838680841,
    0.002908298093958116, 0.0028733257638908906, 0.0028382402263704525,
    0.0028030428637474455, 0.0027677350627777716, 0.0027323182145722684,
    0.002696793714529933, 0.0026611629623014255, 0.002625427361717348,
    0.0025895883207398673, 0.0025536472514093114, 0.0025176055697809017,
    0.002481464695880074, 0.002445226053636617, 0.0024088910708336187,
    0.002372461179048113, 0.0023359378135971677, 0.002299322413484984,
    0.0022626164213356563, 0.0022258212833440216, 0.0021889384492205515,
    0.0021519693721281066, 0.0021149155086291767, 0.002077778318623844,
    0.002040559265295521, 0.002003259815058525, 0.0019658814374908847,
    0.0019284256052757443, 0.0018908937941566264, 0.00185328748286495,
    0.0018156081530709507, 0.0017778572893172747, 0.0017400363789647347,
    0.0017021469121453483, 0.001664190381677067, 0.0016261682830275976,
    0.001588082114248171, 0.0015499333759135972, 0.0015117235710654024,
    0.001473454205149681, 0.001435126785955203, 0.001396742823569744,
    0.0013583038302944425, 0.0013198113206111587, 0.001281266811102958,
    0.001242671820408414, 0.001204027869151193, 0.0011653364798807097,
    0.001126599177025965, 0.0010878174868191907, 0.0010489929372457182,
    0.001010127057980923, 0.0009712213803281727, 0.000932277437164982,
    0.0008932967628777096, 0.0008542808933008306, 0.0008152313656768744,
    0.0007761497185738057, 0.0007370374918305398, 0.0006978962265241319,
    0.0006587274648934523, 0.0006195327503017293, 0.0005803136271950596,
    0.0005410716410672226, 0.0005018083384663445, 0.00046252526700063984,
    0.00042322397547990803, 0.00038390601412477366, 0.00034457293521574135,
    0.00030522629426595917, 0.0002658676532710835, 0.00022649858871526404,
    0.00018712071585655663, 0.00014773577476888183, 0.00010834602869399702,
    6.895707283601415e-05, 2.9623644465697656e-05
  };

}

#endif
